digraph Tree {
node [shape=box] ;
0 [label="X[1] <= 0.5\ngini = 0.48\nsamples = 535\nvalue = [321, 214]"] ;
1 [label="X[2] <= 13.0\ngini = 0.322\nsamples = 342\nvalue = [273, 69]"] ;
0 -> 1 [labeldistance=2.5, labelangle=45, headlabel="True"] ;
5 [label="X[3] <= 2.5\ngini = 0.471\nsamples = 29\nvalue = [11, 18]"] ;
1 -> 5 ;
7 [label="gini = 0.0\nsamples = 18\nvalue = [0, 18]"] ;
5 -> 7 ;
8 [label="gini = 0.0\nsamples = 11\nvalue = [11, 0]"] ;
5 -> 8 ;
6 [label="X[0] <= 1.5\ngini = 0.273\nsamples = 313\nvalue = [262, 51]"] ;
1 -> 6 ;
9 [label="X[2] <= 53.0\ngini = 0.465\nsamples = 68\nvalue = [43, 25]"] ;
6 -> 9 ;
11 [label="X[2] <= 47.5\ngini = 0.495\nsamples = 51\nvalue = [28, 23]"] ;
9 -> 11 ;
15 [label="X[2] <= 43.0\ngini = 0.472\nsamples = 42\nvalue = [26, 16]"] ;
11 -> 15 ;
21 [label="X[2] <= 31.5\ngini = 0.496\nsamples = 33\nvalue = [18, 15]"] ;
15 -> 21 ;
23 [label="X[2] <= 17.5\ngini = 0.415\nsamples = 17\nvalue = [12, 5]"] ;
21 -> 23 ;
33 [label="gini = 0.0\nsamples = 1\nvalue = [0, 1]"] ;
23 -> 33 ;
34 [label="X[2] <= 24.5\ngini = 0.375\nsamples = 16\nvalue = [12, 4]"] ;
23 -> 34 ;
35 [label="gini = 0.0\nsamples = 6\nvalue = [6, 0]"] ;
34 -> 35 ;
36 [label="X[2] <= 26.5\ngini = 0.48\nsamples = 10\nvalue = [6, 4]"] ;
34 -> 36 ;
37 [label="gini = 0.0\nsamples = 2\nvalue = [0, 2]"] ;
36 -> 37 ;
38 [label="X[2] <= 28.5\ngini = 0.375\nsamples = 8\nvalue = [6, 2]"] ;
36 -> 38 ;
213 [label="X[3] <= 0.5\ngini = 0.444\nsamples = 3\nvalue = [2, 1]"] ;
38 -> 213 ;
215 [label="gini = 0.5\nsamples = 2\nvalue = [1, 1]"] ;
213 -> 215 ;
216 [label="gini = 0.0\nsamples = 1\nvalue = [1, 0]"] ;
213 -> 216 ;
214 [label="X[2] <= 30.0\ngini = 0.32\nsamples = 5\nvalue = [4, 1]"] ;
38 -> 214 ;
217 [label="gini = 0.0\nsamples = 2\nvalue = [2, 0]"] ;
214 -> 217 ;
218 [label="X[3] <= 0.5\ngini = 0.444\nsamples = 3\nvalue = [2, 1]"] ;
214 -> 218 ;
219 [label="gini = 0.0\nsamples = 1\nvalue = [1, 0]"] ;
218 -> 219 ;
220 [label="gini = 0.5\nsamples = 2\nvalue = [1, 1]"] ;
218 -> 220 ;
24 [label="X[2] <= 38.5\ngini = 0.469\nsamples = 16\nvalue = [6, 10]"] ;
21 -> 24 ;
45 [label="X[2] <= 33.5\ngini = 0.397\nsamples = 11\nvalue = [3, 8]"] ;
24 -> 45 ;
129 [label="X[2] <= 32.5\ngini = 0.5\nsamples = 2\nvalue = [1, 1]"] ;
45 -> 129 ;
131 [label="gini = 0.0\nsamples = 1\nvalue = [0, 1]"] ;
129 -> 131 ;
132 [label="gini = 0.0\nsamples = 1\nvalue = [1, 0]"] ;
129 -> 132 ;
130 [label="X[2] <= 35.5\ngini = 0.346\nsamples = 9\nvalue = [2, 7]"] ;
45 -> 130 ;
133 [label="gini = 0.0\nsamples = 3\nvalue = [0, 3]"] ;
130 -> 133 ;
134 [label="X[2] <= 37.5\ngini = 0.444\nsamples = 6\nvalue = [2, 4]"] ;
130 -> 134 ;
135 [label="X[3] <= 0.5\ngini = 0.48\nsamples = 5\nvalue = [2, 3]"] ;
134 -> 135 ;
227 [label="X[2] <= 36.5\ngini = 0.444\nsamples = 3\nvalue = [1, 2]"] ;
135 -> 227 ;
229 [label="gini = 0.0\nsamples = 2\nvalue = [0, 2]"] ;
227 -> 229 ;
230 [label="gini = 0.0\nsamples = 1\nvalue = [1, 0]"] ;
227 -> 230 ;
228 [label="X[2] <= 36.5\ngini = 0.5\nsamples = 2\nvalue = [1, 1]"] ;
135 -> 228 ;
231 [label="gini = 0.0\nsamples = 1\nvalue = [1, 0]"] ;
228 -> 231 ;
232 [label="gini = 0.0\nsamples = 1\nvalue = [0, 1]"] ;
228 -> 232 ;
136 [label="gini = 0.0\nsamples = 1\nvalue = [0, 1]"] ;
134 -> 136 ;
46 [label="X[2] <= 41.0\ngini = 0.48\nsamples = 5\nvalue = [3, 2]"] ;
24 -> 46 ;
47 [label="X[2] <= 39.5\ngini = 0.375\nsamples = 4\nvalue = [3, 1]"] ;
46 -> 47 ;
165 [label="gini = 0.0\nsamples = 1\nvalue = [1, 0]"] ;
47 -> 165 ;
166 [label="gini = 0.444\nsamples = 3\nvalue = [2, 1]"] ;
47 -> 166 ;
48 [label="gini = 0.0\nsamples = 1\nvalue = [0, 1]"] ;
46 -> 48 ;
22 [label="X[2] <= 45.5\ngini = 0.198\nsamples = 9\nvalue = [8, 1]"] ;
15 -> 22 ;
117 [label="X[3] <= 0.5\ngini = 0.375\nsamples = 4\nvalue = [3, 1]"] ;
22 -> 117 ;
119 [label="gini = 0.5\nsamples = 2\nvalue = [1, 1]"] ;
117 -> 119 ;
120 [label="gini = 0.0\nsamples = 2\nvalue = [2, 0]"] ;
117 -> 120 ;
118 [label="gini = 0.0\nsamples = 5\nvalue = [5, 0]"] ;
22 -> 118 ;
16 [label="X[4] <= 0.5\ngini = 0.346\nsamples = 9\nvalue = [2, 7]"] ;
11 -> 16 ;
25 [label="X[2] <= 49.5\ngini = 0.219\nsamples = 8\nvalue = [1, 7]"] ;
16 -> 25 ;
137 [label="gini = 0.0\nsamples = 4\nvalue = [0, 4]"] ;
25 -> 137 ;
138 [label="X[3] <= 0.5\ngini = 0.375\nsamples = 4\nvalue = [1, 3]"] ;
25 -> 138 ;
139 [label="gini = 0.0\nsamples = 2\nvalue = [0, 2]"] ;
138 -> 139 ;
140 [label="X[3] <= 1.5\ngini = 0.5\nsamples = 2\nvalue = [1, 1]"] ;
138 -> 140 ;
141 [label="gini = 0.0\nsamples = 1\nvalue = [1, 0]"] ;
140 -> 141 ;
142 [label="gini = 0.0\nsamples = 1\nvalue = [0, 1]"] ;
140 -> 142 ;
26 [label="gini = 0.0\nsamples = 1\nvalue = [1, 0]"] ;
16 -> 26 ;
12 [label="X[3] <= 0.5\ngini = 0.208\nsamples = 17\nvalue = [15, 2]"] ;
9 -> 12 ;
51 [label="X[2] <= 57.0\ngini = 0.124\nsamples = 15\nvalue = [14, 1]"] ;
12 -> 51 ;
121 [label="X[2] <= 55.5\ngini = 0.32\nsamples = 5\nvalue = [4, 1]"] ;
51 -> 121 ;
123 [label="gini = 0.0\nsamples = 3\nvalue = [3, 0]"] ;
121 -> 123 ;
124 [label="gini = 0.5\nsamples = 2\nvalue = [1, 1]"] ;
121 -> 124 ;
122 [label="gini = 0.0\nsamples = 10\nvalue = [10, 0]"] ;
51 -> 122 ;
52 [label="X[2] <= 65.0\ngini = 0.5\nsamples = 2\nvalue = [1, 1]"] ;
12 -> 52 ;
53 [label="gini = 0.0\nsamples = 1\nvalue = [0, 1]"] ;
52 -> 53 ;
54 [label="gini = 0.0\nsamples = 1\nvalue = [1, 0]"] ;
52 -> 54 ;
10 [label="X[2] <= 32.25\ngini = 0.19\nsamples = 245\nvalue = [219, 26]"] ;
6 -> 10 ;
29 [label="X[2] <= 30.75\ngini = 0.241\nsamples = 164\nvalue = [141, 23]"] ;
10 -> 29 ;
31 [label="X[0] <= 2.5\ngini = 0.184\nsamples = 146\nvalue = [131, 15]"] ;
29 -> 31 ;
65 [label="X[2] <= 20.0\ngini = 0.054\nsamples = 36\nvalue = [35, 1]"] ;
31 -> 65 ;
177 [label="X[2] <= 18.5\ngini = 0.18\nsamples = 10\nvalue = [9, 1]"] ;
65 -> 177 ;
179 [label="gini = 0.0\nsamples = 6\nvalue = [6, 0]"] ;
177 -> 179 ;
180 [label="X[3] <= 0.5\ngini = 0.375\nsamples = 4\nvalue = [3, 1]"] ;
177 -> 180 ;
181 [label="gini = 0.444\nsamples = 3\nvalue = [2, 1]"] ;
180 -> 181 ;
182 [label="gini = 0.0\nsamples = 1\nvalue = [1, 0]"] ;
180 -> 182 ;
178 [label="gini = 0.0\nsamples = 26\nvalue = [26, 0]"] ;
65 -> 178 ;
66 [label="X[2] <= 25.5\ngini = 0.222\nsamples = 110\nvalue = [96, 14]"] ;
31 -> 66 ;
67 [label="X[2] <= 18.5\ngini = 0.165\nsamples = 77\nvalue = [70, 7]"] ;
66 -> 67 ;
183 [label="X[2] <= 16.5\ngini = 0.087\nsamples = 22\nvalue = [21, 1]"] ;
67 -> 183 ;
207 [label="X[3] <= 0.5\ngini = 0.18\nsamples = 10\nvalue = [9, 1]"] ;
183 -> 207 ;
209 [label="gini = 0.32\nsamples = 5\nvalue = [4, 1]"] ;
207 -> 209 ;
210 [label="gini = 0.0\nsamples = 5\nvalue = [5, 0]"] ;
207 -> 210 ;
208 [label="gini = 0.0\nsamples = 12\nvalue = [12, 0]"] ;
183 -> 208 ;
184 [label="X[2] <= 20.25\ngini = 0.194\nsamples = 55\nvalue = [49, 6]"] ;
67 -> 184 ;
185 [label="X[3] <= 0.5\ngini = 0.305\nsamples = 16\nvalue = [13, 3]"] ;
184 -> 185 ;
187 [label="X[2] <= 19.5\ngini = 0.231\nsamples = 15\nvalue = [13, 2]"] ;
185 -> 187 ;
243 [label="gini = 0.198\nsamples = 9\nvalue = [8, 1]"] ;
187 -> 243 ;
244 [label="gini = 0.278\nsamples = 6\nvalue = [5, 1]"] ;
187 -> 244 ;
188 [label="gini = 0.0\nsamples = 1\nvalue = [0, 1]"] ;
185 -> 188 ;
186 [label="X[2] <= 21.5\ngini = 0.142\nsamples = 39\nvalue = [36, 3]"] ;
184 -> 186 ;
189 [label="gini = 0.0\nsamples = 10\nvalue = [10, 0]"] ;
186 -> 189 ;
190 [label="X[3] <= 0.5\ngini = 0.185\nsamples = 29\nvalue = [26, 3]"] ;
186 -> 190 ;
211 [label="X[2] <= 23.5\ngini = 0.211\nsamples = 25\nvalue = [22, 3]"] ;
190 -> 211 ;
239 [label="X[2] <= 22.5\ngini = 0.165\nsamples = 11\nvalue = [10, 1]"] ;
211 -> 239 ;
241 [label="gini = 0.219\nsamples = 8\nvalue = [7, 1]"] ;
239 -> 241 ;
242 [label="gini = 0.0\nsamples = 3\nvalue = [3, 0]"] ;
239 -> 242 ;
240 [label="X[2] <= 24.5\ngini = 0.245\nsamples = 14\nvalue = [12, 2]"] ;
211 -> 240 ;
245 [label="gini = 0.278\nsamples = 6\nvalue = [5, 1]"] ;
240 -> 245 ;
246 [label="gini = 0.219\nsamples = 8\nvalue = [7, 1]"] ;
240 -> 246 ;
212 [label="gini = 0.0\nsamples = 4\nvalue = [4, 0]"] ;
190 -> 212 ;
68 [label="X[2] <= 27.5\ngini = 0.334\nsamples = 33\nvalue = [26, 7]"] ;
66 -> 68 ;
69 [label="X[2] <= 26.5\ngini = 0.444\nsamples = 12\nvalue = [8, 4]"] ;
68 -> 69 ;
71 [label="X[3] <= 0.5\ngini = 0.346\nsamples = 9\nvalue = [7, 2]"] ;
69 -> 71 ;
83 [label="gini = 0.444\nsamples = 6\nvalue = [4, 2]"] ;
71 -> 83 ;
84 [label="gini = 0.0\nsamples = 3\nvalue = [3, 0]"] ;
71 -> 84 ;
72 [label="gini = 0.444\nsamples = 3\nvalue = [1, 2]"] ;
69 -> 72 ;
70 [label="X[2] <= 28.75\ngini = 0.245\nsamples = 21\nvalue = [18, 3]"] ;
68 -> 70 ;
73 [label="gini = 0.0\nsamples = 9\nvalue = [9, 0]"] ;
70 -> 73 ;
74 [label="X[2] <= 29.5\ngini = 0.375\nsamples = 12\nvalue = [9, 3]"] ;
70 -> 74 ;
111 [label="gini = 0.48\nsamples = 5\nvalue = [3, 2]"] ;
74 -> 111 ;
112 [label="X[2] <= 30.25\ngini = 0.245\nsamples = 7\nvalue = [6, 1]"] ;
74 -> 112 ;
235 [label="X[3] <= 0.5\ngini = 0.278\nsamples = 6\nvalue = [5, 1]"] ;
112 -> 235 ;
237 [label="gini = 0.32\nsamples = 5\nvalue = [4, 1]"] ;
235 -> 237 ;
238 [label="gini = 0.0\nsamples = 1\nvalue = [1, 0]"] ;
235 -> 238 ;
236 [label="gini = 0.0\nsamples = 1\nvalue = [1, 0]"] ;
112 -> 236 ;
32 [label="X[4] <= 0.5\ngini = 0.494\nsamples = 18\nvalue = [10, 8]"] ;
29 -> 32 ;
85 [label="X[3] <= 1.5\ngini = 0.498\nsamples = 17\nvalue = [9, 8]"] ;
32 -> 85 ;
87 [label="X[2] <= 31.5\ngini = 0.5\nsamples = 16\nvalue = [8, 8]"] ;
85 -> 87 ;
175 [label="X[0] <= 2.5\ngini = 0.48\nsamples = 5\nvalue = [3, 2]"] ;
87 -> 175 ;
233 [label="gini = 0.5\nsamples = 2\nvalue = [1, 1]"] ;
175 -> 233 ;
234 [label="gini = 0.444\nsamples = 3\nvalue = [2, 1]"] ;
175 -> 234 ;
176 [label="X[0] <= 2.5\ngini = 0.496\nsamples = 11\nvalue = [5, 6]"] ;
87 -> 176 ;
247 [label="X[3] <= 0.5\ngini = 0.5\nsamples = 2\nvalue = [1, 1]"] ;
176 -> 247 ;
249 [label="gini = 0.0\nsamples = 1\nvalue = [1, 0]"] ;
247 -> 249 ;
250 [label="gini = 0.0\nsamples = 1\nvalue = [0, 1]"] ;
247 -> 250 ;
248 [label="X[3] <= 0.5\ngini = 0.494\nsamples = 9\nvalue = [4, 5]"] ;
176 -> 248 ;
251 [label="gini = 0.469\nsamples = 8\nvalue = [3, 5]"] ;
248 -> 251 ;
252 [label="gini = 0.0\nsamples = 1\nvalue = [1, 0]"] ;
248 -> 252 ;
88 [label="gini = 0.0\nsamples = 1\nvalue = [1, 0]"] ;
85 -> 88 ;
86 [label="gini = 0.0\nsamples = 1\nvalue = [1, 0]"] ;
32 -> 86 ;
30 [label="X[2] <= 38.5\ngini = 0.071\nsamples = 81\nvalue = [78, 3]"] ;
10 -> 30 ;
191 [label="gini = 0.0\nsamples = 29\nvalue = [29, 0]"] ;
30 -> 191 ;
192 [label="X[2] <= 44.5\ngini = 0.109\nsamples = 52\nvalue = [49, 3]"] ;
30 -> 192 ;
193 [label="X[4] <= 0.5\ngini = 0.219\nsamples = 24\nvalue = [21, 3]"] ;
192 -> 193 ;
195 [label="X[3] <= 0.5\ngini = 0.266\nsamples = 19\nvalue = [16, 3]"] ;
193 -> 195 ;
197 [label="X[2] <= 43.5\ngini = 0.291\nsamples = 17\nvalue = [14, 3]"] ;
195 -> 197 ;
199 [label="X[0] <= 2.5\ngini = 0.245\nsamples = 14\nvalue = [12, 2]"] ;
197 -> 199 ;
201 [label="X[2] <= 40.5\ngini = 0.375\nsamples = 4\nvalue = [3, 1]"] ;
199 -> 201 ;
205 [label="gini = 0.0\nsamples = 2\nvalue = [2, 0]"] ;
201 -> 205 ;
206 [label="gini = 0.5\nsamples = 2\nvalue = [1, 1]"] ;
201 -> 206 ;
202 [label="X[2] <= 39.5\ngini = 0.18\nsamples = 10\nvalue = [9, 1]"] ;
199 -> 202 ;
203 [label="gini = 0.5\nsamples = 2\nvalue = [1, 1]"] ;
202 -> 203 ;
204 [label="gini = 0.0\nsamples = 8\nvalue = [8, 0]"] ;
202 -> 204 ;
200 [label="gini = 0.444\nsamples = 3\nvalue = [2, 1]"] ;
197 -> 200 ;
198 [label="gini = 0.0\nsamples = 2\nvalue = [2, 0]"] ;
195 -> 198 ;
196 [label="gini = 0.0\nsamples = 5\nvalue = [5, 0]"] ;
193 -> 196 ;
194 [label="gini = 0.0\nsamples = 28\nvalue = [28, 0]"] ;
192 -> 194 ;
2 [label="X[0] <= 2.5\ngini = 0.374\nsamples = 193\nvalue = [48, 145]"] ;
0 -> 2 [labeldistance=2.5, labelangle=-45, headlabel="False"] ;
3 [label="X[0] <= 1.5\ngini = 0.083\nsamples = 115\nvalue = [5, 110]"] ;
2 -> 3 ;
143 [label="X[4] <= 1.5\ngini = 0.031\nsamples = 63\nvalue = [1, 62]"] ;
3 -> 143 ;
159 [label="gini = 0.0\nsamples = 53\nvalue = [0, 53]"] ;
143 -> 159 ;
160 [label="X[2] <= 24.5\ngini = 0.18\nsamples = 10\nvalue = [1, 9]"] ;
143 -> 160 ;
161 [label="gini = 0.0\nsamples = 7\nvalue = [0, 7]"] ;
160 -> 161 ;
162 [label="X[2] <= 30.5\ngini = 0.444\nsamples = 3\nvalue = [1, 2]"] ;
160 -> 162 ;
163 [label="gini = 0.0\nsamples = 1\nvalue = [1, 0]"] ;
162 -> 163 ;
164 [label="gini = 0.0\nsamples = 2\nvalue = [0, 2]"] ;
162 -> 164 ;
144 [label="X[4] <= 0.5\ngini = 0.142\nsamples = 52\nvalue = [4, 48]"] ;
3 -> 144 ;
145 [label="X[2] <= 36.5\ngini = 0.245\nsamples = 28\nvalue = [4, 24]"] ;
144 -> 145 ;
147 [label="X[2] <= 27.5\ngini = 0.165\nsamples = 22\nvalue = [2, 20]"] ;
145 -> 147 ;
155 [label="X[2] <= 23.5\ngini = 0.346\nsamples = 9\nvalue = [2, 7]"] ;
147 -> 155 ;
157 [label="gini = 0.0\nsamples = 4\nvalue = [0, 4]"] ;
155 -> 157 ;
158 [label="X[3] <= 0.5\ngini = 0.48\nsamples = 5\nvalue = [2, 3]"] ;
155 -> 158 ;
221 [label="X[2] <= 25.5\ngini = 0.5\nsamples = 2\nvalue = [1, 1]"] ;
158 -> 221 ;
223 [label="gini = 0.0\nsamples = 1\nvalue = [1, 0]"] ;
221 -> 223 ;
224 [label="gini = 0.0\nsamples = 1\nvalue = [0, 1]"] ;
221 -> 224 ;
222 [label="X[2] <= 25.5\ngini = 0.444\nsamples = 3\nvalue = [1, 2]"] ;
158 -> 222 ;
225 [label="gini = 0.0\nsamples = 1\nvalue = [0, 1]"] ;
222 -> 225 ;
226 [label="gini = 0.5\nsamples = 2\nvalue = [1, 1]"] ;
222 -> 226 ;
156 [label="gini = 0.0\nsamples = 13\nvalue = [0, 13]"] ;
147 -> 156 ;
148 [label="X[2] <= 39.0\ngini = 0.444\nsamples = 6\nvalue = [2, 4]"] ;
145 -> 148 ;
149 [label="gini = 0.0\nsamples = 1\nvalue = [1, 0]"] ;
148 -> 149 ;
150 [label="X[3] <= 0.5\ngini = 0.32\nsamples = 5\nvalue = [1, 4]"] ;
148 -> 150 ;
151 [label="gini = 0.0\nsamples = 3\nvalue = [0, 3]"] ;
150 -> 151 ;
152 [label="X[2] <= 43.0\ngini = 0.5\nsamples = 2\nvalue = [1, 1]"] ;
150 -> 152 ;
153 [label="gini = 0.0\nsamples = 1\nvalue = [0, 1]"] ;
152 -> 153 ;
154 [label="gini = 0.0\nsamples = 1\nvalue = [1, 0]"] ;
152 -> 154 ;
146 [label="gini = 0.0\nsamples = 24\nvalue = [0, 24]"] ;
144 -> 146 ;
4 [label="X[2] <= 38.5\ngini = 0.495\nsamples = 78\nvalue = [43, 35]"] ;
2 -> 4 ;
13 [label="X[3] <= 1.5\ngini = 0.5\nsamples = 68\nvalue = [34, 34]"] ;
4 -> 13 ;
17 [label="X[4] <= 0.5\ngini = 0.492\nsamples = 55\nvalue = [24, 31]"] ;
13 -> 17 ;
39 [label="X[2] <= 16.5\ngini = 0.5\nsamples = 38\nvalue = [19, 19]"] ;
17 -> 39 ;
41 [label="X[2] <= 14.75\ngini = 0.375\nsamples = 8\nvalue = [2, 6]"] ;
39 -> 41 ;
43 [label="X[2] <= 13.5\ngini = 0.5\nsamples = 4\nvalue = [2, 2]"] ;
41 -> 43 ;
49 [label="gini = 0.0\nsamples = 1\nvalue = [0, 1]"] ;
43 -> 49 ;
50 [label="X[3] <= 0.5\ngini = 0.444\nsamples = 3\nvalue = [2, 1]"] ;
43 -> 50 ;
113 [label="gini = 0.0\nsamples = 1\nvalue = [1, 0]"] ;
50 -> 113 ;
114 [label="X[2] <= 14.25\ngini = 0.5\nsamples = 2\nvalue = [1, 1]"] ;
50 -> 114 ;
115 [label="gini = 0.0\nsamples = 1\nvalue = [0, 1]"] ;
114 -> 115 ;
116 [label="gini = 0.0\nsamples = 1\nvalue = [1, 0]"] ;
114 -> 116 ;
44 [label="gini = 0.0\nsamples = 4\nvalue = [0, 4]"] ;
41 -> 44 ;
42 [label="X[2] <= 17.5\ngini = 0.491\nsamples = 30\nvalue = [17, 13]"] ;
39 -> 42 ;
89 [label="gini = 0.0\nsamples = 1\nvalue = [1, 0]"] ;
42 -> 89 ;
90 [label="X[2] <= 22.5\ngini = 0.495\nsamples = 29\nvalue = [16, 13]"] ;
42 -> 90 ;
91 [label="X[2] <= 21.5\ngini = 0.498\nsamples = 15\nvalue = [7, 8]"] ;
90 -> 91 ;
93 [label="X[2] <= 19.5\ngini = 0.48\nsamples = 10\nvalue = [6, 4]"] ;
91 -> 93 ;
97 [label="X[2] <= 18.5\ngini = 0.48\nsamples = 5\nvalue = [2, 3]"] ;
93 -> 97 ;
99 [label="gini = 0.444\nsamples = 3\nvalue = [2, 1]"] ;
97 -> 99 ;
100 [label="gini = 0.0\nsamples = 2\nvalue = [0, 2]"] ;
97 -> 100 ;
98 [label="X[2] <= 20.5\ngini = 0.32\nsamples = 5\nvalue = [4, 1]"] ;
93 -> 98 ;
125 [label="gini = 0.0\nsamples = 2\nvalue = [2, 0]"] ;
98 -> 125 ;
126 [label="X[3] <= 0.5\ngini = 0.444\nsamples = 3\nvalue = [2, 1]"] ;
98 -> 126 ;
127 [label="gini = 0.5\nsamples = 2\nvalue = [1, 1]"] ;
126 -> 127 ;
128 [label="gini = 0.0\nsamples = 1\nvalue = [1, 0]"] ;
126 -> 128 ;
94 [label="gini = 0.32\nsamples = 5\nvalue = [1, 4]"] ;
91 -> 94 ;
92 [label="X[2] <= 25.5\ngini = 0.459\nsamples = 14\nvalue = [9, 5]"] ;
90 -> 92 ;
95 [label="gini = 0.0\nsamples = 3\nvalue = [3, 0]"] ;
92 -> 95 ;
96 [label="X[2] <= 36.5\ngini = 0.496\nsamples = 11\nvalue = [6, 5]"] ;
92 -> 96 ;
101 [label="X[2] <= 33.5\ngini = 0.5\nsamples = 10\nvalue = [5, 5]"] ;
96 -> 101 ;
103 [label="X[3] <= 0.5\ngini = 0.494\nsamples = 9\nvalue = [5, 4]"] ;
101 -> 103 ;
105 [label="X[2] <= 27.5\ngini = 0.49\nsamples = 7\nvalue = [3, 4]"] ;
103 -> 105 ;
107 [label="gini = 0.0\nsamples = 2\nvalue = [0, 2]"] ;
105 -> 107 ;
108 [label="X[2] <= 30.75\ngini = 0.48\nsamples = 5\nvalue = [3, 2]"] ;
105 -> 108 ;
109 [label="X[2] <= 29.0\ngini = 0.375\nsamples = 4\nvalue = [3, 1]"] ;
108 -> 109 ;
167 [label="gini = 0.0\nsamples = 1\nvalue = [1, 0]"] ;
109 -> 167 ;
168 [label="X[2] <= 30.25\ngini = 0.444\nsamples = 3\nvalue = [2, 1]"] ;
109 -> 168 ;
169 [label="gini = 0.5\nsamples = 2\nvalue = [1, 1]"] ;
168 -> 169 ;
170 [label="gini = 0.0\nsamples = 1\nvalue = [1, 0]"] ;
168 -> 170 ;
110 [label="gini = 0.0\nsamples = 1\nvalue = [0, 1]"] ;
108 -> 110 ;
106 [label="gini = 0.0\nsamples = 2\nvalue = [2, 0]"] ;
103 -> 106 ;
104 [label="gini = 0.0\nsamples = 1\nvalue = [0, 1]"] ;
101 -> 104 ;
102 [label="gini = 0.0\nsamples = 1\nvalue = [1, 0]"] ;
96 -> 102 ;
40 [label="X[2] <= 30.5\ngini = 0.415\nsamples = 17\nvalue = [5, 12]"] ;
17 -> 40 ;
55 [label="X[2] <= 29.5\ngini = 0.459\nsamples = 14\nvalue = [5, 9]"] ;
40 -> 55 ;
57 [label="X[4] <= 3.0\ngini = 0.426\nsamples = 13\nvalue = [4, 9]"] ;
55 -> 57 ;
59 [label="X[2] <= 14.0\ngini = 0.375\nsamples = 12\nvalue = [3, 9]"] ;
57 -> 59 ;
61 [label="X[2] <= 6.5\ngini = 0.469\nsamples = 8\nvalue = [3, 5]"] ;
59 -> 61 ;
63 [label="X[2] <= 1.5\ngini = 0.278\nsamples = 6\nvalue = [1, 5]"] ;
61 -> 63 ;
171 [label="gini = 0.0\nsamples = 2\nvalue = [0, 2]"] ;
63 -> 171 ;
172 [label="X[2] <= 3.0\ngini = 0.375\nsamples = 4\nvalue = [1, 3]"] ;
63 -> 172 ;
173 [label="gini = 0.5\nsamples = 2\nvalue = [1, 1]"] ;
172 -> 173 ;
174 [label="gini = 0.0\nsamples = 2\nvalue = [0, 2]"] ;
172 -> 174 ;
64 [label="gini = 0.0\nsamples = 2\nvalue = [2, 0]"] ;
61 -> 64 ;
62 [label="gini = 0.0\nsamples = 4\nvalue = [0, 4]"] ;
59 -> 62 ;
60 [label="gini = 0.0\nsamples = 1\nvalue = [1, 0]"] ;
57 -> 60 ;
58 [label="gini = 0.0\nsamples = 1\nvalue = [1, 0]"] ;
55 -> 58 ;
56 [label="gini = 0.0\nsamples = 3\nvalue = [0, 3]"] ;
40 -> 56 ;
18 [label="X[2] <= 27.0\ngini = 0.355\nsamples = 13\nvalue = [10, 3]"] ;
13 -> 18 ;
27 [label="X[3] <= 3.5\ngini = 0.278\nsamples = 12\nvalue = [10, 2]"] ;
18 -> 27 ;
75 [label="gini = 0.0\nsamples = 5\nvalue = [5, 0]"] ;
27 -> 75 ;
76 [label="X[2] <= 16.5\ngini = 0.408\nsamples = 7\nvalue = [5, 2]"] ;
27 -> 76 ;
77 [label="X[2] <= 5.5\ngini = 0.278\nsamples = 6\nvalue = [5, 1]"] ;
76 -> 77 ;
79 [label="X[2] <= 3.5\ngini = 0.5\nsamples = 2\nvalue = [1, 1]"] ;
77 -> 79 ;
81 [label="gini = 0.0\nsamples = 1\nvalue = [1, 0]"] ;
79 -> 81 ;
82 [label="gini = 0.0\nsamples = 1\nvalue = [0, 1]"] ;
79 -> 82 ;
80 [label="gini = 0.0\nsamples = 4\nvalue = [4, 0]"] ;
77 -> 80 ;
78 [label="gini = 0.0\nsamples = 1\nvalue = [0, 1]"] ;
76 -> 78 ;
28 [label="gini = 0.0\nsamples = 1\nvalue = [0, 1]"] ;
18 -> 28 ;
14 [label="X[2] <= 55.5\ngini = 0.18\nsamples = 10\nvalue = [9, 1]"] ;
4 -> 14 ;
19 [label="gini = 0.0\nsamples = 9\nvalue = [9, 0]"] ;
14 -> 19 ;
20 [label="gini = 0.0\nsamples = 1\nvalue = [0, 1]"] ;
14 -> 20 ;
}
